digraph Tree {
node [shape=box] ;
0 [label="X[26] <= 0.5\ngini = 0.4998\nsamples = 2886\nvalue = [2321, 2227]"] ;
1 [label="X[115] <= 0.5\ngini = 0.4245\nsamples = 2126\nvalue = [2321, 1022]"] ;
0 -> 1 [labeldistance=2.5, labelangle=45, headlabel="True"] ;
2 [label="X[37] <= 0.5\ngini = 0.3872\nsamples = 1949\nvalue = [2256, 803]"] ;
1 -> 2 ;
3 [label="X[31] <= 0.5\ngini = 0.3233\nsamples = 565\nvalue = [188, 739]"] ;
2 -> 3 ;
4 [label="X[35] <= 0.5\ngini = 0.3925\nsamples = 421\nvalue = [188, 513]"] ;
3 -> 4 ;
5 [label="X[25] <= 0.5\ngini = 0.466\nsamples = 98\nvalue = [104, 61]"] ;
4 -> 5 ;
6 [label="X[74] <= 0.5\ngini = 0.173\nsamples = 69\nvalue = [104, 11]"] ;
5 -> 6 ;
7 [label="X[20] <= 0.5\ngini = 0.0875\nsamples = 65\nvalue = [104, 5]"] ;
6 -> 7 ;
8 [label="gini = 0.0\nsamples = 41\nvalue = [69, 0]"] ;
7 -> 8 ;
9 [label="X[11] <= 0.5\ngini = 0.2188\nsamples = 24\nvalue = [35, 5]"] ;
7 -> 9 ;
10 [label="X[106] <= 0.5\ngini = 0.1023\nsamples = 21\nvalue = [35, 2]"] ;
9 -> 10 ;
11 [label="gini = 0.0\nsamples = 19\nvalue = [35, 0]"] ;
10 -> 11 ;
12 [label="gini = 0.0\nsamples = 2\nvalue = [0, 2]"] ;
10 -> 12 ;
13 [label="gini = 0.0\nsamples = 3\nvalue = [0, 3]"] ;
9 -> 13 ;
14 [label="gini = 0.0\nsamples = 4\nvalue = [0, 6]"] ;
6 -> 14 ;
15 [label="gini = 0.0\nsamples = 29\nvalue = [0, 50]"] ;
5 -> 15 ;
16 [label="X[6] <= 0.5\ngini = 0.2643\nsamples = 323\nvalue = [84, 452]"] ;
4 -> 16 ;
17 [label="X[92] <= 0.5\ngini = 0.2273\nsamples = 313\nvalue = [68, 452]"] ;
16 -> 17 ;
18 [label="X[56] <= 0.5\ngini = 0.1399\nsamples = 297\nvalue = [37, 452]"] ;
17 -> 18 ;
19 [label="gini = 0.0\nsamples = 180\nvalue = [0, 285]"] ;
18 -> 19 ;
20 [label="X[20] <= 0.5\ngini = 0.297\nsamples = 117\nvalue = [37, 167]"] ;
18 -> 20 ;
21 [label="X[29] <= 0.5\ngini = 0.4285\nsamples = 66\nvalue = [37, 82]"] ;
20 -> 21 ;
22 [label="gini = 0.0\nsamples = 46\nvalue = [0, 82]"] ;
21 -> 22 ;
23 [label="gini = 0.0\nsamples = 20\nvalue = [37, 0]"] ;
21 -> 23 ;
24 [label="gini = 0.0\nsamples = 51\nvalue = [0, 85]"] ;
20 -> 24 ;
25 [label="gini = 0.0\nsamples = 16\nvalue = [31, 0]"] ;
17 -> 25 ;
26 [label="gini = 0.0\nsamples = 10\nvalue = [16, 0]"] ;
16 -> 26 ;
27 [label="gini = 0.0\nsamples = 144\nvalue = [0, 226]"] ;
3 -> 27 ;
28 [label="X[99] <= 0.5\ngini = 0.0582\nsamples = 1384\nvalue = [2068, 64]"] ;
2 -> 28 ;
29 [label="X[47] <= 0.5\ngini = 0.0998\nsamples = 782\nvalue = [1151, 64]"] ;
28 -> 29 ;
30 [label="X[28] <= 0.5\ngini = 0.0739\nsamples = 771\nvalue = [1151, 46]"] ;
29 -> 30 ;
31 [label="X[89] <= 0.5\ngini = 0.0432\nsamples = 758\nvalue = [1151, 26]"] ;
30 -> 31 ;
32 [label="X[0] <= 109.5\ngini = 0.1648\nsamples = 183\nvalue = [261, 26]"] ;
31 -> 32 ;
33 [label="X[0] <= 92.5\ngini = 0.343\nsamples = 58\nvalue = [71, 20]"] ;
32 -> 33 ;
34 [label="X[95] <= 0.5\ngini = 0.2285\nsamples = 53\nvalue = [66, 10]"] ;
33 -> 34 ;
35 [label="gini = 0.0\nsamples = 21\nvalue = [29, 0]"] ;
34 -> 35 ;
36 [label="X[12] <= 0.5\ngini = 0.335\nsamples = 32\nvalue = [37, 10]"] ;
34 -> 36 ;
37 [label="X[17] <= 0.5\ngini = 0.2401\nsamples = 29\nvalue = [37, 6]"] ;
36 -> 37 ;
38 [label="X[103] <= 0.5\ngini = 0.1388\nsamples = 26\nvalue = [37, 3]"] ;
37 -> 38 ;
39 [label="gini = 0.0\nsamples = 3\nvalue = [0, 3]"] ;
38 -> 39 ;
40 [label="gini = 0.0\nsamples = 23\nvalue = [37, 0]"] ;
38 -> 40 ;
41 [label="gini = 0.0\nsamples = 3\nvalue = [0, 3]"] ;
37 -> 41 ;
42 [label="gini = 0.0\nsamples = 3\nvalue = [0, 4]"] ;
36 -> 42 ;
43 [label="X[12] <= 0.5\ngini = 0.4444\nsamples = 5\nvalue = [5, 10]"] ;
33 -> 43 ;
44 [label="X[1] <= 41.0\ngini = 0.5\nsamples = 3\nvalue = [5, 5]"] ;
43 -> 44 ;
45 [label="gini = 0.0\nsamples = 2\nvalue = [0, 5]"] ;
44 -> 45 ;
46 [label="gini = 0.0\nsamples = 1\nvalue = [5, 0]"] ;
44 -> 46 ;
47 [label="gini = 0.0\nsamples = 2\nvalue = [0, 5]"] ;
43 -> 47 ;
48 [label="X[35] <= 0.5\ngini = 0.0594\nsamples = 125\nvalue = [190, 6]"] ;
32 -> 48 ;
49 [label="gini = 0.0\nsamples = 83\nvalue = [123, 0]"] ;
48 -> 49 ;
50 [label="X[54] <= 0.5\ngini = 0.1509\nsamples = 42\nvalue = [67, 6]"] ;
48 -> 50 ;
51 [label="gini = 0.0\nsamples = 37\nvalue = [65, 0]"] ;
50 -> 51 ;
52 [label="X[0] <= 431.0\ngini = 0.375\nsamples = 5\nvalue = [2, 6]"] ;
50 -> 52 ;
53 [label="gini = 0.0\nsamples = 3\nvalue = [0, 4]"] ;
52 -> 53 ;
54 [label="X[61] <= 0.5\ngini = 0.5\nsamples = 2\nvalue = [2, 2]"] ;
52 -> 54 ;
55 [label="gini = 0.0\nsamples = 1\nvalue = [0, 2]"] ;
54 -> 55 ;
56 [label="gini = 0.0\nsamples = 1\nvalue = [2, 0]"] ;
54 -> 56 ;
57 [label="gini = 0.0\nsamples = 575\nvalue = [890, 0]"] ;
31 -> 57 ;
58 [label="gini = 0.0\nsamples = 13\nvalue = [0, 20]"] ;
30 -> 58 ;
59 [label="gini = 0.0\nsamples = 11\nvalue = [0, 18]"] ;
29 -> 59 ;
60 [label="gini = 0.0\nsamples = 602\nvalue = [917, 0]"] ;
28 -> 60 ;
61 [label="X[53] <= 0.5\ngini = 0.353\nsamples = 177\nvalue = [65, 219]"] ;
1 -> 61 ;
62 [label="gini = 0.0\nsamples = 42\nvalue = [65, 0]"] ;
61 -> 62 ;
63 [label="gini = 0.0\nsamples = 135\nvalue = [0, 219]"] ;
61 -> 63 ;
64 [label="gini = 0.0\nsamples = 760\nvalue = [0, 1205]"] ;
0 -> 64 [labeldistance=2.5, labelangle=-45, headlabel="False"] ;
}