digraph Tree {
node [shape=box] ;
0 [label="X[38] <= 0.5\ngini = 0.4995\nsamples = 2841\nvalue = [2347, 2201]"] ;
1 [label="X[60] <= 0.5\ngini = 0.4192\nsamples = 1926\nvalue = [2194, 936]"] ;
0 -> 1 [labeldistance=2.5, labelangle=45, headlabel="True"] ;
2 [label="X[82] <= 0.5\ngini = 0.3898\nsamples = 669\nvalue = [286, 792]"] ;
1 -> 2 ;
3 [label="X[89] <= 0.5\ngini = 0.028\nsamples = 450\nvalue = [10, 693]"] ;
2 -> 3 ;
4 [label="X[79] <= 0.5\ngini = 0.4915\nsamples = 15\nvalue = [10, 13]"] ;
3 -> 4 ;
5 [label="gini = 0.0\nsamples = 9\nvalue = [0, 13]"] ;
4 -> 5 ;
6 [label="gini = 0.0\nsamples = 6\nvalue = [10, 0]"] ;
4 -> 6 ;
7 [label="gini = 0.0\nsamples = 435\nvalue = [0, 680]"] ;
3 -> 7 ;
8 [label="X[97] <= 0.5\ngini = 0.3886\nsamples = 219\nvalue = [276, 99]"] ;
2 -> 8 ;
9 [label="gini = 0.0\nsamples = 164\nvalue = [276, 0]"] ;
8 -> 9 ;
10 [label="gini = 0.0\nsamples = 55\nvalue = [0, 99]"] ;
8 -> 10 ;
11 [label="X[26] <= 0.5\ngini = 0.1305\nsamples = 1257\nvalue = [1908, 144]"] ;
1 -> 11 ;
12 [label="X[17] <= 0.5\ngini = 0.0554\nsamples = 1200\nvalue = [1908, 56]"] ;
11 -> 12 ;
13 [label="X[54] <= 0.5\ngini = 0.0359\nsamples = 1171\nvalue = [1881, 35]"] ;
12 -> 13 ;
14 [label="gini = 0.0\nsamples = 522\nvalue = [842, 0]"] ;
13 -> 14 ;
15 [label="X[0] <= 1.5\ngini = 0.0631\nsamples = 649\nvalue = [1039, 35]"] ;
13 -> 15 ;
16 [label="X[10] <= 0.5\ngini = 0.4938\nsamples = 4\nvalue = [5, 4]"] ;
15 -> 16 ;
17 [label="gini = 0.0\nsamples = 2\nvalue = [5, 0]"] ;
16 -> 17 ;
18 [label="gini = 0.0\nsamples = 2\nvalue = [0, 4]"] ;
16 -> 18 ;
19 [label="X[90] <= 0.5\ngini = 0.0565\nsamples = 645\nvalue = [1034, 31]"] ;
15 -> 19 ;
20 [label="gini = 0.0\nsamples = 618\nvalue = [1022, 0]"] ;
19 -> 20 ;
21 [label="X[7] <= 0.5\ngini = 0.4024\nsamples = 27\nvalue = [12, 31]"] ;
19 -> 21 ;
22 [label="X[110] <= 0.5\ngini = 0.3006\nsamples = 23\nvalue = [7, 31]"] ;
21 -> 22 ;
23 [label="X[4] <= 0.5\ngini = 0.2717\nsamples = 22\nvalue = [6, 31]"] ;
22 -> 23 ;
24 [label="gini = 0.0\nsamples = 8\nvalue = [0, 16]"] ;
23 -> 24 ;
25 [label="X[49] <= 0.5\ngini = 0.4082\nsamples = 14\nvalue = [6, 15]"] ;
23 -> 25 ;
26 [label="gini = 0.0\nsamples = 7\nvalue = [0, 11]"] ;
25 -> 26 ;
27 [label="X[103] <= 0.5\ngini = 0.48\nsamples = 7\nvalue = [6, 4]"] ;
25 -> 27 ;
28 [label="gini = 0.0\nsamples = 4\nvalue = [0, 4]"] ;
27 -> 28 ;
29 [label="gini = 0.0\nsamples = 3\nvalue = [6, 0]"] ;
27 -> 29 ;
30 [label="gini = 0.0\nsamples = 1\nvalue = [1, 0]"] ;
22 -> 30 ;
31 [label="gini = 0.0\nsamples = 4\nvalue = [5, 0]"] ;
21 -> 31 ;
32 [label="X[1] <= 36.0\ngini = 0.4922\nsamples = 29\nvalue = [27, 21]"] ;
12 -> 32 ;
33 [label="X[4] <= 0.5\ngini = 0.4709\nsamples = 16\nvalue = [11, 18]"] ;
32 -> 33 ;
34 [label="X[54] <= 0.5\ngini = 0.5\nsamples = 10\nvalue = [9, 9]"] ;
33 -> 34 ;
35 [label="gini = 0.0\nsamples = 6\nvalue = [9, 0]"] ;
34 -> 35 ;
36 [label="gini = 0.0\nsamples = 4\nvalue = [0, 9]"] ;
34 -> 36 ;
37 [label="X[10] <= 0.5\ngini = 0.2975\nsamples = 6\nvalue = [2, 9]"] ;
33 -> 37 ;
38 [label="gini = 0.0\nsamples = 1\nvalue = [0, 4]"] ;
37 -> 38 ;
39 [label="X[110] <= 0.5\ngini = 0.4082\nsamples = 5\nvalue = [2, 5]"] ;
37 -> 39 ;
40 [label="X[103] <= 0.5\ngini = 0.2778\nsamples = 4\nvalue = [1, 5]"] ;
39 -> 40 ;
41 [label="gini = 0.0\nsamples = 3\nvalue = [0, 5]"] ;
40 -> 41 ;
42 [label="gini = 0.0\nsamples = 1\nvalue = [1, 0]"] ;
40 -> 42 ;
43 [label="gini = 0.0\nsamples = 1\nvalue = [1, 0]"] ;
39 -> 43 ;
44 [label="X[53] <= 0.5\ngini = 0.2659\nsamples = 13\nvalue = [16, 3]"] ;
32 -> 44 ;
45 [label="gini = 0.0\nsamples = 3\nvalue = [0, 3]"] ;
44 -> 45 ;
46 [label="gini = 0.0\nsamples = 10\nvalue = [16, 0]"] ;
44 -> 46 ;
47 [label="gini = 0.0\nsamples = 57\nvalue = [0, 88]"] ;
11 -> 47 ;
48 [label="X[97] <= 0.5\ngini = 0.1925\nsamples = 915\nvalue = [153, 1265]"] ;
0 -> 48 [labeldistance=2.5, labelangle=-45, headlabel="False"] ;
49 [label="X[110] <= 0.5\ngini = 0.1648\nsamples = 897\nvalue = [126, 1265]"] ;
48 -> 49 ;
50 [label="X[102] <= 0.5\ngini = 0.1346\nsamples = 879\nvalue = [99, 1265]"] ;
49 -> 50 ;
51 [label="X[63] <= 0.5\ngini = 0.1019\nsamples = 860\nvalue = [72, 1265]"] ;
50 -> 51 ;
52 [label="X[0] <= 151.5\ngini = 0.1557\nsamples = 545\nvalue = [72, 774]"] ;
51 -> 52 ;
53 [label="X[36] <= 0.5\ngini = 0.2444\nsamples = 285\nvalue = [63, 379]"] ;
52 -> 53 ;
54 [label="X[10] <= 0.5\ngini = 0.068\nsamples = 239\nvalue = [13, 356]"] ;
53 -> 54 ;
55 [label="X[11] <= 0.5\ngini = 0.1281\nsamples = 121\nvalue = [13, 176]"] ;
54 -> 55 ;
56 [label="X[4] <= 0.5\ngini = 0.4915\nsamples = 16\nvalue = [13, 10]"] ;
55 -> 56 ;
57 [label="X[60] <= 0.5\ngini = 0.4844\nsamples = 13\nvalue = [7, 10]"] ;
56 -> 57 ;
58 [label="gini = 0.0\nsamples = 2\nvalue = [0, 2]"] ;
57 -> 58 ;
59 [label="X[6] <= 0.5\ngini = 0.4978\nsamples = 11\nvalue = [7, 8]"] ;
57 -> 59 ;
60 [label="X[54] <= 0.5\ngini = 0.4444\nsamples = 8\nvalue = [4, 8]"] ;
59 -> 60 ;
61 [label="gini = 0.0\nsamples = 3\nvalue = [4, 0]"] ;
60 -> 61 ;
62 [label="gini = 0.0\nsamples = 5\nvalue = [0, 8]"] ;
60 -> 62 ;
63 [label="gini = 0.0\nsamples = 3\nvalue = [3, 0]"] ;
59 -> 63 ;
64 [label="gini = 0.0\nsamples = 3\nvalue = [6, 0]"] ;
56 -> 64 ;
65 [label="gini = 0.0\nsamples = 105\nvalue = [0, 166]"] ;
55 -> 65 ;
66 [label="gini = 0.0\nsamples = 118\nvalue = [0, 180]"] ;
54 -> 66 ;
67 [label="X[27] <= 0.5\ngini = 0.4316\nsamples = 46\nvalue = [50, 23]"] ;
53 -> 67 ;
68 [label="X[79] <= 0.5\ngini = 0.489\nsamples = 35\nvalue = [31, 23]"] ;
67 -> 68 ;
69 [label="X[51] <= 0.5\ngini = 0.4224\nsamples = 21\nvalue = [10, 23]"] ;
68 -> 69 ;
70 [label="gini = 0.0\nsamples = 6\nvalue = [10, 0]"] ;
69 -> 70 ;
71 [label="gini = 0.0\nsamples = 15\nvalue = [0, 23]"] ;
69 -> 71 ;
72 [label="gini = 0.0\nsamples = 14\nvalue = [21, 0]"] ;
68 -> 72 ;
73 [label="gini = 0.0\nsamples = 11\nvalue = [19, 0]"] ;
67 -> 73 ;
74 [label="X[10] <= 0.5\ngini = 0.0436\nsamples = 260\nvalue = [9, 395]"] ;
52 -> 74 ;
75 [label="X[81] <= 0.5\ngini = 0.0859\nsamples = 137\nvalue = [9, 191]"] ;
74 -> 75 ;
76 [label="X[113] <= 0.5\ngini = 0.1346\nsamples = 87\nvalue = [9, 115]"] ;
75 -> 76 ;
77 [label="X[91] <= 0.5\ngini = 0.022\nsamples = 61\nvalue = [1, 89]"] ;
76 -> 77 ;
78 [label="X[21] <= 0.5\ngini = 0.0526\nsamples = 28\nvalue = [1, 36]"] ;
77 -> 78 ;
79 [label="gini = 0.0\nsamples = 27\nvalue = [0, 36]"] ;
78 -> 79 ;
80 [label="gini = 0.0\nsamples = 1\nvalue = [1, 0]"] ;
78 -> 80 ;
81 [label="gini = 0.0\nsamples = 33\nvalue = [0, 53]"] ;
77 -> 81 ;
82 [label="X[106] <= 0.5\ngini = 0.3599\nsamples = 26\nvalue = [8, 26]"] ;
76 -> 82 ;
83 [label="X[0] <= 501.5\ngini = 0.3995\nsamples = 22\nvalue = [8, 21]"] ;
82 -> 83 ;
84 [label="X[52] <= 0.5\ngini = 0.4628\nsamples = 16\nvalue = [8, 14]"] ;
83 -> 84 ;
85 [label="gini = 0.0\nsamples = 6\nvalue = [8, 0]"] ;
84 -> 85 ;
86 [label="gini = 0.0\nsamples = 10\nvalue = [0, 14]"] ;
84 -> 86 ;
87 [label="gini = 0.0\nsamples = 6\nvalue = [0, 7]"] ;
83 -> 87 ;
88 [label="gini = 0.0\nsamples = 4\nvalue = [0, 5]"] ;
82 -> 88 ;
89 [label="gini = 0.0\nsamples = 50\nvalue = [0, 76]"] ;
75 -> 89 ;
90 [label="gini = 0.0\nsamples = 123\nvalue = [0, 204]"] ;
74 -> 90 ;
91 [label="gini = 0.0\nsamples = 315\nvalue = [0, 491]"] ;
51 -> 91 ;
92 [label="gini = 0.0\nsamples = 19\nvalue = [27, 0]"] ;
50 -> 92 ;
93 [label="gini = 0.0\nsamples = 18\nvalue = [27, 0]"] ;
49 -> 93 ;
94 [label="gini = 0.0\nsamples = 18\nvalue = [27, 0]"] ;
48 -> 94 ;
}