digraph Tree {
node [shape=box] ;
0 [label="X[37] <= 0.5\ngini = 0.499\nsamples = 2886\nvalue = [2378, 2170]"] ;
1 [label="X[24] <= 0.5\ngini = 0.2223\nsamples = 898\nvalue = [181, 1240]"] ;
0 -> 1 [labeldistance=2.5, labelangle=45, headlabel="True"] ;
2 [label="X[110] <= 0.5\ngini = 0.1965\nsamples = 881\nvalue = [154, 1240]"] ;
1 -> 2 ;
3 [label="X[53] <= 0.5\ngini = 0.1298\nsamples = 848\nvalue = [93, 1240]"] ;
2 -> 3 ;
4 [label="X[64] <= 0.5\ngini = 0.3728\nsamples = 208\nvalue = [84, 255]"] ;
3 -> 4 ;
5 [label="X[87] <= 0.5\ngini = 0.48\nsamples = 16\nvalue = [18, 12]"] ;
4 -> 5 ;
6 [label="gini = 0.0\nsamples = 12\nvalue = [18, 0]"] ;
5 -> 6 ;
7 [label="gini = 0.0\nsamples = 4\nvalue = [0, 12]"] ;
5 -> 7 ;
8 [label="X[102] <= 0.5\ngini = 0.3359\nsamples = 192\nvalue = [66, 243]"] ;
4 -> 8 ;
9 [label="X[58] <= 0.5\ngini = 0.2716\nsamples = 183\nvalue = [47, 243]"] ;
8 -> 9 ;
10 [label="X[29] <= 0.5\ngini = 0.247\nsamples = 179\nvalue = [41, 243]"] ;
9 -> 10 ;
11 [label="X[22] <= 0.5\ngini = 0.0702\nsamples = 155\nvalue = [9, 238]"] ;
10 -> 11 ;
12 [label="X[109] <= 0.5\ngini = 0.1142\nsamples = 94\nvalue = [9, 139]"] ;
11 -> 12 ;
13 [label="gini = 0.0\nsamples = 45\nvalue = [0, 77]"] ;
12 -> 13 ;
14 [label="X[52] <= 0.5\ngini = 0.2214\nsamples = 49\nvalue = [9, 62]"] ;
12 -> 14 ;
15 [label="gini = 0.0\nsamples = 41\nvalue = [0, 62]"] ;
14 -> 15 ;
16 [label="gini = 0.0\nsamples = 8\nvalue = [9, 0]"] ;
14 -> 16 ;
17 [label="gini = 0.0\nsamples = 61\nvalue = [0, 99]"] ;
11 -> 17 ;
18 [label="X[109] <= 0.5\ngini = 0.2337\nsamples = 24\nvalue = [32, 5]"] ;
10 -> 18 ;
19 [label="gini = 0.0\nsamples = 4\nvalue = [0, 5]"] ;
18 -> 19 ;
20 [label="gini = 0.0\nsamples = 20\nvalue = [32, 0]"] ;
18 -> 20 ;
21 [label="gini = 0.0\nsamples = 4\nvalue = [6, 0]"] ;
9 -> 21 ;
22 [label="gini = 0.0\nsamples = 9\nvalue = [19, 0]"] ;
8 -> 22 ;
23 [label="X[91] <= 0.5\ngini = 0.0179\nsamples = 640\nvalue = [9, 985]"] ;
3 -> 23 ;
24 [label="gini = 0.0\nsamples = 7\nvalue = [9, 0]"] ;
23 -> 24 ;
25 [label="gini = 0.0\nsamples = 633\nvalue = [0, 985]"] ;
23 -> 25 ;
26 [label="gini = 0.0\nsamples = 33\nvalue = [61, 0]"] ;
2 -> 26 ;
27 [label="gini = 0.0\nsamples = 17\nvalue = [27, 0]"] ;
1 -> 27 ;
28 [label="X[26] <= 0.5\ngini = 0.4179\nsamples = 1988\nvalue = [2197, 930]"] ;
0 -> 28 [labeldistance=2.5, labelangle=-45, headlabel="False"] ;
29 [label="X[91] <= 0.5\ngini = 0.0485\nsamples = 1432\nvalue = [2197, 56]"] ;
28 -> 29 ;
30 [label="X[2] <= 0.5\ngini = 0.0628\nsamples = 1101\nvalue = [1669, 56]"] ;
29 -> 30 ;
31 [label="X[17] <= 0.5\ngini = 0.0465\nsamples = 970\nvalue = [1477, 36]"] ;
30 -> 31 ;
32 [label="X[88] <= 0.5\ngini = 0.0378\nsamples = 964\nvalue = [1476, 29]"] ;
31 -> 32 ;
33 [label="X[90] <= 0.5\ngini = 0.0186\nsamples = 954\nvalue = [1476, 14]"] ;
32 -> 33 ;
34 [label="gini = 0.0\nsamples = 866\nvalue = [1354, 0]"] ;
33 -> 34 ;
35 [label="X[12] <= 0.5\ngini = 0.1847\nsamples = 88\nvalue = [122, 14]"] ;
33 -> 35 ;
36 [label="X[101] <= 0.5\ngini = 0.128\nsamples = 86\nvalue = [122, 9]"] ;
35 -> 36 ;
37 [label="gini = 0.0\nsamples = 80\nvalue = [122, 0]"] ;
36 -> 37 ;
38 [label="gini = 0.0\nsamples = 6\nvalue = [0, 9]"] ;
36 -> 38 ;
39 [label="gini = 0.0\nsamples = 2\nvalue = [0, 5]"] ;
35 -> 39 ;
40 [label="gini = 0.0\nsamples = 10\nvalue = [0, 15]"] ;
32 -> 40 ;
41 [label="X[109] <= 0.5\ngini = 0.2188\nsamples = 6\nvalue = [1, 7]"] ;
31 -> 41 ;
42 [label="gini = 0.0\nsamples = 1\nvalue = [1, 0]"] ;
41 -> 42 ;
43 [label="gini = 0.0\nsamples = 5\nvalue = [0, 7]"] ;
41 -> 43 ;
44 [label="X[101] <= 0.5\ngini = 0.1709\nsamples = 131\nvalue = [192, 20]"] ;
30 -> 44 ;
45 [label="gini = 0.0\nsamples = 118\nvalue = [192, 0]"] ;
44 -> 45 ;
46 [label="gini = 0.0\nsamples = 13\nvalue = [0, 20]"] ;
44 -> 46 ;
47 [label="gini = 0.0\nsamples = 331\nvalue = [528, 0]"] ;
29 -> 47 ;
48 [label="gini = 0.0\nsamples = 556\nvalue = [0, 874]"] ;
28 -> 48 ;
}