digraph Tree {
node [shape=box] ;
0 [label="X[59] <= 0.5\ngini = 0.4992\nsamples = 2899\nvalue = [2363, 2185]"] ;
1 [label="X[39] <= 0.5\ngini = 0.4125\nsamples = 2035\nvalue = [2277, 934]"] ;
0 -> 1 [labeldistance=2.5, labelangle=45, headlabel="True"] ;
2 [label="X[29] <= 0.5\ngini = 0.2856\nsamples = 1749\nvalue = [2277, 475]"] ;
1 -> 2 ;
3 [label="X[114] <= 0.5\ngini = 0.4998\nsamples = 536\nvalue = [438, 419]"] ;
2 -> 3 ;
4 [label="X[57] <= 0.5\ngini = 0.4828\nsamples = 449\nvalue = [288, 419]"] ;
3 -> 4 ;
5 [label="X[54] <= 0.5\ngini = 0.4343\nsamples = 394\nvalue = [196, 419]"] ;
4 -> 5 ;
6 [label="X[49] <= 0.5\ngini = 0.4998\nsamples = 186\nvalue = [144, 150]"] ;
5 -> 6 ;
7 [label="X[108] <= 0.5\ngini = 0.4997\nsamples = 141\nvalue = [107, 112]"] ;
6 -> 7 ;
8 [label="X[41] <= 0.5\ngini = 0.5\nsamples = 72\nvalue = [57, 58]"] ;
7 -> 8 ;
9 [label="X[30] <= 0.5\ngini = 0.466\nsamples = 60\nvalue = [34, 58]"] ;
8 -> 9 ;
10 [label="gini = 0.0\nsamples = 21\nvalue = [34, 0]"] ;
9 -> 10 ;
11 [label="gini = 0.0\nsamples = 39\nvalue = [0, 58]"] ;
9 -> 11 ;
12 [label="gini = 0.0\nsamples = 12\nvalue = [23, 0]"] ;
8 -> 12 ;
13 [label="X[11] <= 0.5\ngini = 0.4993\nsamples = 69\nvalue = [50, 54]"] ;
7 -> 13 ;
14 [label="X[0] <= 25.0\ngini = 0.4857\nsamples = 43\nvalue = [27, 38]"] ;
13 -> 14 ;
15 [label="X[27] <= 0.5\ngini = 0.1528\nsamples = 7\nvalue = [11, 1]"] ;
14 -> 15 ;
16 [label="X[56] <= 0.5\ngini = 0.2778\nsamples = 4\nvalue = [5, 1]"] ;
15 -> 16 ;
17 [label="gini = 0.0\nsamples = 3\nvalue = [5, 0]"] ;
16 -> 17 ;
18 [label="gini = 0.0\nsamples = 1\nvalue = [0, 1]"] ;
16 -> 18 ;
19 [label="gini = 0.0\nsamples = 3\nvalue = [6, 0]"] ;
15 -> 19 ;
20 [label="X[24] <= 0.5\ngini = 0.4215\nsamples = 36\nvalue = [16, 37]"] ;
14 -> 20 ;
21 [label="X[27] <= 0.5\ngini = 0.3533\nsamples = 32\nvalue = [11, 37]"] ;
20 -> 21 ;
22 [label="gini = 0.0\nsamples = 24\nvalue = [0, 37]"] ;
21 -> 22 ;
23 [label="gini = 0.0\nsamples = 8\nvalue = [11, 0]"] ;
21 -> 23 ;
24 [label="gini = 0.0\nsamples = 4\nvalue = [5, 0]"] ;
20 -> 24 ;
25 [label="X[38] <= 0.5\ngini = 0.4839\nsamples = 26\nvalue = [23, 16]"] ;
13 -> 25 ;
26 [label="gini = 0.0\nsamples = 13\nvalue = [23, 0]"] ;
25 -> 26 ;
27 [label="gini = 0.0\nsamples = 13\nvalue = [0, 16]"] ;
25 -> 27 ;
28 [label="X[38] <= 0.5\ngini = 0.4999\nsamples = 45\nvalue = [37, 38]"] ;
6 -> 28 ;
29 [label="gini = 0.0\nsamples = 23\nvalue = [37, 0]"] ;
28 -> 29 ;
30 [label="gini = 0.0\nsamples = 22\nvalue = [0, 38]"] ;
28 -> 30 ;
31 [label="X[35] <= 0.5\ngini = 0.2715\nsamples = 208\nvalue = [52, 269]"] ;
5 -> 31 ;
32 [label="X[7] <= 0.5\ngini = 0.5\nsamples = 67\nvalue = [52, 51]"] ;
31 -> 32 ;
33 [label="gini = 0.0\nsamples = 24\nvalue = [35, 0]"] ;
32 -> 33 ;
34 [label="X[25] <= 0.5\ngini = 0.375\nsamples = 43\nvalue = [17, 51]"] ;
32 -> 34 ;
35 [label="gini = 0.0\nsamples = 14\nvalue = [17, 0]"] ;
34 -> 35 ;
36 [label="gini = 0.0\nsamples = 29\nvalue = [0, 51]"] ;
34 -> 36 ;
37 [label="gini = 0.0\nsamples = 141\nvalue = [0, 218]"] ;
31 -> 37 ;
38 [label="gini = 0.0\nsamples = 55\nvalue = [92, 0]"] ;
4 -> 38 ;
39 [label="gini = 0.0\nsamples = 87\nvalue = [150, 0]"] ;
3 -> 39 ;
40 [label="X[2] <= 0.5\ngini = 0.0574\nsamples = 1213\nvalue = [1839, 56]"] ;
2 -> 40 ;
41 [label="X[9] <= 0.5\ngini = 0.0369\nsamples = 1158\nvalue = [1776, 34]"] ;
40 -> 41 ;
42 [label="X[106] <= 0.5\ngini = 0.0348\nsamples = 1156\nvalue = [1776, 32]"] ;
41 -> 42 ;
43 [label="X[101] <= 0.5\ngini = 0.026\nsamples = 1059\nvalue = [1645, 22]"] ;
42 -> 43 ;
44 [label="gini = 0.0\nsamples = 1047\nvalue = [1645, 0]"] ;
43 -> 44 ;
45 [label="gini = 0.0\nsamples = 12\nvalue = [0, 22]"] ;
43 -> 45 ;
46 [label="X[55] <= 0.5\ngini = 0.1318\nsamples = 97\nvalue = [131, 10]"] ;
42 -> 46 ;
47 [label="X[73] <= 0.5\ngini = 0.0296\nsamples = 91\nvalue = [131, 2]"] ;
46 -> 47 ;
48 [label="gini = 0.0\nsamples = 57\nvalue = [82, 0]"] ;
47 -> 48 ;
49 [label="X[117] <= 0.5\ngini = 0.0754\nsamples = 34\nvalue = [49, 2]"] ;
47 -> 49 ;
50 [label="gini = 0.0\nsamples = 1\nvalue = [0, 2]"] ;
49 -> 50 ;
51 [label="gini = 0.0\nsamples = 33\nvalue = [49, 0]"] ;
49 -> 51 ;
52 [label="gini = 0.0\nsamples = 6\nvalue = [0, 8]"] ;
46 -> 52 ;
53 [label="gini = 0.0\nsamples = 2\nvalue = [0, 2]"] ;
41 -> 53 ;
54 [label="X[95] <= 0.5\ngini = 0.3837\nsamples = 55\nvalue = [63, 22]"] ;
40 -> 54 ;
55 [label="gini = 0.0\nsamples = 1\nvalue = [0, 2]"] ;
54 -> 55 ;
56 [label="X[53] <= 0.5\ngini = 0.3658\nsamples = 54\nvalue = [63, 20]"] ;
54 -> 56 ;
57 [label="X[73] <= 0.5\ngini = 0.2268\nsamples = 15\nvalue = [3, 20]"] ;
56 -> 57 ;
58 [label="gini = 0.0\nsamples = 2\nvalue = [3, 0]"] ;
57 -> 58 ;
59 [label="gini = 0.0\nsamples = 13\nvalue = [0, 20]"] ;
57 -> 59 ;
60 [label="gini = 0.0\nsamples = 39\nvalue = [60, 0]"] ;
56 -> 60 ;
61 [label="gini = 0.0\nsamples = 286\nvalue = [0, 459]"] ;
1 -> 61 ;
62 [label="X[90] <= 0.5\ngini = 0.1204\nsamples = 864\nvalue = [86, 1251]"] ;
0 -> 62 [labeldistance=2.5, labelangle=-45, headlabel="False"] ;
63 [label="gini = 0.0\nsamples = 813\nvalue = [0, 1251]"] ;
62 -> 63 ;
64 [label="gini = 0.0\nsamples = 51\nvalue = [86, 0]"] ;
62 -> 64 ;
}