digraph Tree {
node [shape=box] ;
0 [label="X[22] <= 0.5\ngini = 0.4999\nsamples = 2876\nvalue = [2309, 2239]"] ;
1 [label="X[62] <= 0.5\ngini = 0.3146\nsamples = 1203\nvalue = [1547, 376]"] ;
0 -> 1 [labeldistance=2.5, labelangle=45, headlabel="True"] ;
2 [label="X[29] <= 0.5\ngini = 0.2757\nsamples = 1154\nvalue = [1547, 306]"] ;
1 -> 2 ;
3 [label="X[116] <= 0.5\ngini = 0.4706\nsamples = 430\nvalue = [420, 256]"] ;
2 -> 3 ;
4 [label="X[97] <= 0.5\ngini = 0.379\nsamples = 355\nvalue = [420, 143]"] ;
3 -> 4 ;
5 [label="X[109] <= 0.5\ngini = 0.2989\nsamples = 327\nvalue = [420, 94]"] ;
4 -> 5 ;
6 [label="X[30] <= 0.5\ngini = 0.2143\nsamples = 270\nvalue = [374, 52]"] ;
5 -> 6 ;
7 [label="gini = 0.0\nsamples = 245\nvalue = [374, 0]"] ;
6 -> 7 ;
8 [label="gini = 0.0\nsamples = 25\nvalue = [0, 52]"] ;
6 -> 8 ;
9 [label="X[21] <= 0.5\ngini = 0.499\nsamples = 57\nvalue = [46, 42]"] ;
5 -> 9 ;
10 [label="X[99] <= 0.5\ngini = 0.4832\nsamples = 43\nvalue = [29, 42]"] ;
9 -> 10 ;
11 [label="X[0] <= 35.0\ngini = 0.4986\nsamples = 23\nvalue = [18, 20]"] ;
10 -> 11 ;
12 [label="X[51] <= 0.5\ngini = 0.2778\nsamples = 6\nvalue = [2, 10]"] ;
11 -> 12 ;
13 [label="gini = 0.0\nsamples = 1\nvalue = [2, 0]"] ;
12 -> 13 ;
14 [label="gini = 0.0\nsamples = 5\nvalue = [0, 10]"] ;
12 -> 14 ;
15 [label="X[112] <= 0.5\ngini = 0.4734\nsamples = 17\nvalue = [16, 10]"] ;
11 -> 15 ;
16 [label="gini = 0.0\nsamples = 9\nvalue = [16, 0]"] ;
15 -> 16 ;
17 [label="gini = 0.0\nsamples = 8\nvalue = [0, 10]"] ;
15 -> 17 ;
18 [label="X[56] <= 0.5\ngini = 0.4444\nsamples = 20\nvalue = [11, 22]"] ;
10 -> 18 ;
19 [label="gini = 0.0\nsamples = 8\nvalue = [11, 0]"] ;
18 -> 19 ;
20 [label="gini = 0.0\nsamples = 12\nvalue = [0, 22]"] ;
18 -> 20 ;
21 [label="gini = 0.0\nsamples = 14\nvalue = [17, 0]"] ;
9 -> 21 ;
22 [label="gini = 0.0\nsamples = 28\nvalue = [0, 49]"] ;
4 -> 22 ;
23 [label="gini = 0.0\nsamples = 75\nvalue = [0, 113]"] ;
3 -> 23 ;
24 [label="X[35] <= 0.5\ngini = 0.0814\nsamples = 724\nvalue = [1127, 50]"] ;
2 -> 24 ;
25 [label="gini = 0.0\nsamples = 8\nvalue = [0, 11]"] ;
24 -> 25 ;
26 [label="X[101] <= 0.5\ngini = 0.0647\nsamples = 716\nvalue = [1127, 39]"] ;
24 -> 26 ;
27 [label="gini = 0.0\nsamples = 691\nvalue = [1127, 0]"] ;
26 -> 27 ;
28 [label="gini = 0.0\nsamples = 25\nvalue = [0, 39]"] ;
26 -> 28 ;
29 [label="gini = 0.0\nsamples = 49\nvalue = [0, 70]"] ;
1 -> 29 ;
30 [label="X[35] <= 0.5\ngini = 0.412\nsamples = 1673\nvalue = [762, 1863]"] ;
0 -> 30 [labeldistance=2.5, labelangle=-45, headlabel="False"] ;
31 [label="X[106] <= 0.5\ngini = 0.1591\nsamples = 419\nvalue = [576, 55]"] ;
30 -> 31 ;
32 [label="X[54] <= 0.5\ngini = 0.1344\nsamples = 414\nvalue = [576, 45]"] ;
31 -> 32 ;
33 [label="gini = 0.0\nsamples = 362\nvalue = [542, 0]"] ;
32 -> 33 ;
34 [label="X[62] <= 0.5\ngini = 0.4903\nsamples = 52\nvalue = [34, 45]"] ;
32 -> 34 ;
35 [label="X[5] <= 0.5\ngini = 0.4175\nsamples = 42\nvalue = [19, 45]"] ;
34 -> 35 ;
36 [label="X[15] <= 0.5\ngini = 0.3157\nsamples = 37\nvalue = [11, 45]"] ;
35 -> 36 ;
37 [label="X[113] <= 0.5\ngini = 0.3988\nsamples = 28\nvalue = [11, 29]"] ;
36 -> 37 ;
38 [label="gini = 0.0\nsamples = 21\nvalue = [0, 29]"] ;
37 -> 38 ;
39 [label="gini = 0.0\nsamples = 7\nvalue = [11, 0]"] ;
37 -> 39 ;
40 [label="gini = 0.0\nsamples = 9\nvalue = [0, 16]"] ;
36 -> 40 ;
41 [label="gini = 0.0\nsamples = 5\nvalue = [8, 0]"] ;
35 -> 41 ;
42 [label="gini = 0.0\nsamples = 10\nvalue = [15, 0]"] ;
34 -> 42 ;
43 [label="gini = 0.0\nsamples = 5\nvalue = [0, 10]"] ;
31 -> 43 ;
44 [label="X[44] <= 0.5\ngini = 0.1692\nsamples = 1254\nvalue = [186, 1808]"] ;
30 -> 44 ;
45 [label="X[60] <= 0.5\ngini = 0.132\nsamples = 1213\nvalue = [137, 1791]"] ;
44 -> 45 ;
46 [label="X[2] <= 0.5\ngini = 0.0216\nsamples = 784\nvalue = [14, 1268]"] ;
45 -> 46 ;
47 [label="X[59] <= 0.5\ngini = 0.0125\nsamples = 781\nvalue = [8, 1266]"] ;
46 -> 47 ;
48 [label="gini = 0.0\nsamples = 5\nvalue = [8, 0]"] ;
47 -> 48 ;
49 [label="gini = 0.0\nsamples = 776\nvalue = [0, 1266]"] ;
47 -> 49 ;
50 [label="X[73] <= 0.5\ngini = 0.375\nsamples = 3\nvalue = [6, 2]"] ;
46 -> 50 ;
51 [label="gini = 0.0\nsamples = 2\nvalue = [6, 0]"] ;
50 -> 51 ;
52 [label="gini = 0.0\nsamples = 1\nvalue = [0, 2]"] ;
50 -> 52 ;
53 [label="X[29] <= 0.5\ngini = 0.3083\nsamples = 429\nvalue = [123, 523]"] ;
45 -> 53 ;
54 [label="gini = 0.0\nsamples = 343\nvalue = [0, 523]"] ;
53 -> 54 ;
55 [label="gini = 0.0\nsamples = 86\nvalue = [123, 0]"] ;
53 -> 55 ;
56 [label="X[84] <= 0.5\ngini = 0.3825\nsamples = 41\nvalue = [49, 17]"] ;
44 -> 56 ;
57 [label="X[7] <= 0.5\ngini = 0.4617\nsamples = 32\nvalue = [30, 17]"] ;
56 -> 57 ;
58 [label="gini = 0.0\nsamples = 15\nvalue = [22, 0]"] ;
57 -> 58 ;
59 [label="X[54] <= 0.5\ngini = 0.4352\nsamples = 17\nvalue = [8, 17]"] ;
57 -> 59 ;
60 [label="gini = 0.0\nsamples = 5\nvalue = [8, 0]"] ;
59 -> 60 ;
61 [label="gini = 0.0\nsamples = 12\nvalue = [0, 17]"] ;
59 -> 61 ;
62 [label="gini = 0.0\nsamples = 9\nvalue = [19, 0]"] ;
56 -> 62 ;
}