digraph Tree {
node [shape=box] ;
0 [label="X[35] <= 0.5\ngini = 0.5\nsamples = 2898\nvalue = [2295, 2253]"] ;
1 [label="X[87] <= 0.5\ngini = 0.1548\nsamples = 454\nvalue = [639, 59]"] ;
0 -> 1 [labeldistance=2.5, labelangle=45, headlabel="True"] ;
2 [label="X[25] <= 0.5\ngini = 0.13\nsamples = 448\nvalue = [639, 48]"] ;
1 -> 2 ;
3 [label="X[91] <= 0.5\ngini = 0.0303\nsamples = 422\nvalue = [639, 10]"] ;
2 -> 3 ;
4 [label="X[89] <= 0.5\ngini = 0.0832\nsamples = 150\nvalue = [220, 10]"] ;
3 -> 4 ;
5 [label="gini = 0.0\nsamples = 107\nvalue = [160, 0]"] ;
4 -> 5 ;
6 [label="X[10] <= 0.5\ngini = 0.2449\nsamples = 43\nvalue = [60, 10]"] ;
4 -> 6 ;
7 [label="X[9] <= 0.5\ngini = 0.3403\nsamples = 31\nvalue = [36, 10]"] ;
6 -> 7 ;
8 [label="X[29] <= 0.5\ngini = 0.2142\nsamples = 27\nvalue = [36, 5]"] ;
7 -> 8 ;
9 [label="gini = 0.0\nsamples = 25\nvalue = [36, 0]"] ;
8 -> 9 ;
10 [label="gini = 0.0\nsamples = 2\nvalue = [0, 5]"] ;
8 -> 10 ;
11 [label="gini = 0.0\nsamples = 4\nvalue = [0, 5]"] ;
7 -> 11 ;
12 [label="gini = 0.0\nsamples = 12\nvalue = [24, 0]"] ;
6 -> 12 ;
13 [label="gini = 0.0\nsamples = 272\nvalue = [419, 0]"] ;
3 -> 13 ;
14 [label="gini = 0.0\nsamples = 26\nvalue = [0, 38]"] ;
2 -> 14 ;
15 [label="gini = 0.0\nsamples = 6\nvalue = [0, 11]"] ;
1 -> 15 ;
16 [label="X[103] <= 0.5\ngini = 0.4902\nsamples = 2444\nvalue = [1656, 2194]"] ;
0 -> 16 [labeldistance=2.5, labelangle=-45, headlabel="False"] ;
17 [label="X[37] <= 0.5\ngini = 0.4924\nsamples = 1718\nvalue = [1514, 1181]"] ;
16 -> 17 ;
18 [label="X[29] <= 0.5\ngini = 0.3778\nsamples = 181\nvalue = [67, 198]"] ;
17 -> 18 ;
19 [label="gini = 0.0\nsamples = 136\nvalue = [0, 198]"] ;
18 -> 19 ;
20 [label="gini = 0.0\nsamples = 45\nvalue = [67, 0]"] ;
18 -> 20 ;
21 [label="X[64] <= 0.5\ngini = 0.4818\nsamples = 1537\nvalue = [1447, 983]"] ;
17 -> 21 ;
22 [label="X[60] <= 0.5\ngini = 0.1859\nsamples = 593\nvalue = [98, 847]"] ;
21 -> 22 ;
23 [label="gini = 0.0\nsamples = 507\nvalue = [0, 821]"] ;
22 -> 23 ;
24 [label="X[24] <= 0.5\ngini = 0.3314\nsamples = 86\nvalue = [98, 26]"] ;
22 -> 24 ;
25 [label="X[4] <= 0.5\ngini = 0.453\nsamples = 51\nvalue = [49, 26]"] ;
24 -> 25 ;
26 [label="X[26] <= 0.5\ngini = 0.4043\nsamples = 24\nvalue = [23, 9]"] ;
25 -> 26 ;
27 [label="gini = 0.0\nsamples = 15\nvalue = [23, 0]"] ;
26 -> 27 ;
28 [label="gini = 0.0\nsamples = 9\nvalue = [0, 9]"] ;
26 -> 28 ;
29 [label="X[97] <= 0.5\ngini = 0.4781\nsamples = 27\nvalue = [26, 17]"] ;
25 -> 29 ;
30 [label="gini = 0.0\nsamples = 16\nvalue = [26, 0]"] ;
29 -> 30 ;
31 [label="gini = 0.0\nsamples = 11\nvalue = [0, 17]"] ;
29 -> 31 ;
32 [label="gini = 0.0\nsamples = 35\nvalue = [49, 0]"] ;
24 -> 32 ;
33 [label="X[10] <= 0.5\ngini = 0.1664\nsamples = 944\nvalue = [1349, 136]"] ;
21 -> 33 ;
34 [label="X[51] <= 0.5\ngini = 0.0487\nsamples = 728\nvalue = [1093, 28]"] ;
33 -> 34 ;
35 [label="gini = 0.0\nsamples = 624\nvalue = [946, 0]"] ;
34 -> 35 ;
36 [label="X[12] <= 0.5\ngini = 0.2688\nsamples = 104\nvalue = [147, 28]"] ;
34 -> 36 ;
37 [label="X[109] <= 0.5\ngini = 0.2108\nsamples = 100\nvalue = [147, 20]"] ;
36 -> 37 ;
38 [label="gini = 0.0\nsamples = 87\nvalue = [147, 0]"] ;
37 -> 38 ;
39 [label="gini = 0.0\nsamples = 13\nvalue = [0, 20]"] ;
37 -> 39 ;
40 [label="gini = 0.0\nsamples = 4\nvalue = [0, 8]"] ;
36 -> 40 ;
41 [label="X[58] <= 0.5\ngini = 0.4173\nsamples = 216\nvalue = [256, 108]"] ;
33 -> 41 ;
42 [label="X[97] <= 0.5\ngini = 0.3288\nsamples = 195\nvalue = [256, 67]"] ;
41 -> 42 ;
43 [label="X[101] <= 0.5\ngini = 0.1344\nsamples = 166\nvalue = [256, 20]"] ;
42 -> 43 ;
44 [label="gini = 0.0\nsamples = 151\nvalue = [256, 0]"] ;
43 -> 44 ;
45 [label="gini = 0.0\nsamples = 15\nvalue = [0, 20]"] ;
43 -> 45 ;
46 [label="gini = 0.0\nsamples = 29\nvalue = [0, 47]"] ;
42 -> 46 ;
47 [label="gini = 0.0\nsamples = 21\nvalue = [0, 41]"] ;
41 -> 47 ;
48 [label="X[117] <= 0.5\ngini = 0.2157\nsamples = 726\nvalue = [142, 1013]"] ;
16 -> 48 ;
49 [label="X[95] <= 0.5\ngini = 0.0594\nsamples = 654\nvalue = [32, 1013]"] ;
48 -> 49 ;
50 [label="gini = 0.0\nsamples = 635\nvalue = [0, 1013]"] ;
49 -> 50 ;
51 [label="gini = 0.0\nsamples = 19\nvalue = [32, 0]"] ;
49 -> 51 ;
52 [label="gini = 0.0\nsamples = 72\nvalue = [110, 0]"] ;
48 -> 52 ;
}