digraph Tree {
node [shape=box] ;
0 [label="X[29] <= 0.5\ngini = 0.4999\nsamples = 2912\nvalue = [2313, 2235]"] ;
1 [label="X[107] <= 0.5\ngini = 0.2751\nsamples = 1680\nvalue = [426, 2161]"] ;
0 -> 1 [labeldistance=2.5, labelangle=45, headlabel="True"] ;
2 [label="X[63] <= 0.5\ngini = 0.2135\nsamples = 1598\nvalue = [299, 2161]"] ;
1 -> 2 ;
3 [label="X[95] <= 0.5\ngini = 0.3668\nsamples = 799\nvalue = [299, 937]"] ;
2 -> 3 ;
4 [label="gini = 0.0\nsamples = 329\nvalue = [0, 519]"] ;
3 -> 4 ;
5 [label="X[24] <= 0.5\ngini = 0.4862\nsamples = 470\nvalue = [299, 418]"] ;
3 -> 5 ;
6 [label="X[56] <= 0.5\ngini = 0.3785\nsamples = 372\nvalue = [142, 418]"] ;
5 -> 6 ;
7 [label="X[57] <= 0.5\ngini = 0.461\nsamples = 267\nvalue = [142, 252]"] ;
6 -> 7 ;
8 [label="X[97] <= 0.5\ngini = 0.3858\nsamples = 232\nvalue = [89, 252]"] ;
7 -> 8 ;
9 [label="X[35] <= 0.5\ngini = 0.4996\nsamples = 134\nvalue = [89, 94]"] ;
8 -> 9 ;
10 [label="X[22] <= 0.5\ngini = 0.4377\nsamples = 52\nvalue = [22, 46]"] ;
9 -> 10 ;
11 [label="gini = 0.0\nsamples = 17\nvalue = [22, 0]"] ;
10 -> 11 ;
12 [label="gini = 0.0\nsamples = 35\nvalue = [0, 46]"] ;
10 -> 12 ;
13 [label="X[37] <= 0.5\ngini = 0.4864\nsamples = 82\nvalue = [67, 48]"] ;
9 -> 13 ;
14 [label="gini = 0.0\nsamples = 34\nvalue = [0, 48]"] ;
13 -> 14 ;
15 [label="gini = 0.0\nsamples = 48\nvalue = [67, 0]"] ;
13 -> 15 ;
16 [label="gini = 0.0\nsamples = 98\nvalue = [0, 158]"] ;
8 -> 16 ;
17 [label="gini = 0.0\nsamples = 35\nvalue = [53, 0]"] ;
7 -> 17 ;
18 [label="gini = 0.0\nsamples = 105\nvalue = [0, 166]"] ;
6 -> 18 ;
19 [label="gini = 0.0\nsamples = 98\nvalue = [157, 0]"] ;
5 -> 19 ;
20 [label="gini = 0.0\nsamples = 799\nvalue = [0, 1224]"] ;
2 -> 20 ;
21 [label="gini = 0.0\nsamples = 82\nvalue = [127, 0]"] ;
1 -> 21 ;
22 [label="X[12] <= 0.5\ngini = 0.0726\nsamples = 1232\nvalue = [1887, 74]"] ;
0 -> 22 [labeldistance=2.5, labelangle=-45, headlabel="False"] ;
23 [label="X[55] <= 0.5\ngini = 0.0606\nsamples = 1202\nvalue = [1857, 60]"] ;
22 -> 23 ;
24 [label="X[37] <= 0.5\ngini = 0.0511\nsamples = 1196\nvalue = [1857, 50]"] ;
23 -> 24 ;
25 [label="X[83] <= 0.5\ngini = 0.2975\nsamples = 88\nvalue = [117, 26]"] ;
24 -> 25 ;
26 [label="X[99] <= 0.5\ngini = 0.2311\nsamples = 83\nvalue = [117, 18]"] ;
25 -> 26 ;
27 [label="X[92] <= 0.5\ngini = 0.2975\nsamples = 63\nvalue = [81, 18]"] ;
26 -> 27 ;
28 [label="X[111] <= 0.5\ngini = 0.3519\nsamples = 51\nvalue = [61, 18]"] ;
27 -> 28 ;
29 [label="X[91] <= 0.5\ngini = 0.242\nsamples = 43\nvalue = [61, 10]"] ;
28 -> 29 ;
30 [label="X[103] <= 0.5\ngini = 0.4224\nsamples = 21\nvalue = [23, 10]"] ;
29 -> 30 ;
31 [label="gini = 0.0\nsamples = 14\nvalue = [23, 0]"] ;
30 -> 31 ;
32 [label="gini = 0.0\nsamples = 7\nvalue = [0, 10]"] ;
30 -> 32 ;
33 [label="gini = 0.0\nsamples = 22\nvalue = [38, 0]"] ;
29 -> 33 ;
34 [label="gini = 0.0\nsamples = 8\nvalue = [0, 8]"] ;
28 -> 34 ;
35 [label="gini = 0.0\nsamples = 12\nvalue = [20, 0]"] ;
27 -> 35 ;
36 [label="gini = 0.0\nsamples = 20\nvalue = [36, 0]"] ;
26 -> 36 ;
37 [label="gini = 0.0\nsamples = 5\nvalue = [0, 8]"] ;
25 -> 37 ;
38 [label="X[20] <= 0.5\ngini = 0.0268\nsamples = 1108\nvalue = [1740, 24]"] ;
24 -> 38 ;
39 [label="X[2] <= 0.5\ngini = 0.0179\nsamples = 971\nvalue = [1532, 14]"] ;
38 -> 39 ;
40 [label="X[99] <= 0.5\ngini = 0.0147\nsamples = 929\nvalue = [1476, 11]"] ;
39 -> 40 ;
41 [label="X[112] <= 0.5\ngini = 0.0264\nsamples = 513\nvalue = [810, 11]"] ;
40 -> 41 ;
42 [label="X[89] <= 0.5\ngini = 0.0032\nsamples = 394\nvalue = [626, 1]"] ;
41 -> 42 ;
43 [label="X[49] <= 0.5\ngini = 0.0183\nsamples = 70\nvalue = [107, 1]"] ;
42 -> 43 ;
44 [label="X[77] <= 0.5\ngini = 0.0526\nsamples = 26\nvalue = [36, 1]"] ;
43 -> 44 ;
45 [label="X[10] <= 0.5\ngini = 0.0868\nsamples = 15\nvalue = [21, 1]"] ;
44 -> 45 ;
46 [label="X[91] <= 0.5\ngini = 0.1528\nsamples = 8\nvalue = [11, 1]"] ;
45 -> 46 ;
47 [label="gini = 0.0\nsamples = 1\nvalue = [0, 1]"] ;
46 -> 47 ;
48 [label="gini = 0.0\nsamples = 7\nvalue = [11, 0]"] ;
46 -> 48 ;
49 [label="gini = 0.0\nsamples = 7\nvalue = [10, 0]"] ;
45 -> 49 ;
50 [label="gini = 0.0\nsamples = 11\nvalue = [15, 0]"] ;
44 -> 50 ;
51 [label="gini = 0.0\nsamples = 44\nvalue = [71, 0]"] ;
43 -> 51 ;
52 [label="gini = 0.0\nsamples = 324\nvalue = [519, 0]"] ;
42 -> 52 ;
53 [label="X[56] <= 0.5\ngini = 0.0978\nsamples = 119\nvalue = [184, 10]"] ;
41 -> 53 ;
54 [label="X[107] <= 0.5\ngini = 0.2571\nsamples = 38\nvalue = [56, 10]"] ;
53 -> 54 ;
55 [label="X[54] <= 0.5\ngini = 0.3628\nsamples = 22\nvalue = [32, 10]"] ;
54 -> 55 ;
56 [label="gini = 0.0\nsamples = 17\nvalue = [32, 0]"] ;
55 -> 56 ;
57 [label="gini = 0.0\nsamples = 5\nvalue = [0, 10]"] ;
55 -> 57 ;
58 [label="gini = 0.0\nsamples = 16\nvalue = [24, 0]"] ;
54 -> 58 ;
59 [label="gini = 0.0\nsamples = 81\nvalue = [128, 0]"] ;
53 -> 59 ;
60 [label="gini = 0.0\nsamples = 416\nvalue = [666, 0]"] ;
40 -> 60 ;
61 [label="X[35] <= 0.5\ngini = 0.0965\nsamples = 42\nvalue = [56, 3]"] ;
39 -> 61 ;
62 [label="gini = 0.0\nsamples = 20\nvalue = [30, 0]"] ;
61 -> 62 ;
63 [label="X[16] <= 0.5\ngini = 0.1855\nsamples = 22\nvalue = [26, 3]"] ;
61 -> 63 ;
64 [label="gini = 0.0\nsamples = 3\nvalue = [0, 3]"] ;
63 -> 64 ;
65 [label="gini = 0.0\nsamples = 19\nvalue = [26, 0]"] ;
63 -> 65 ;
66 [label="X[109] <= 0.5\ngini = 0.0875\nsamples = 137\nvalue = [208, 10]"] ;
38 -> 66 ;
67 [label="gini = 0.0\nsamples = 130\nvalue = [208, 0]"] ;
66 -> 67 ;
68 [label="gini = 0.0\nsamples = 7\nvalue = [0, 10]"] ;
66 -> 68 ;
69 [label="gini = 0.0\nsamples = 6\nvalue = [0, 10]"] ;
23 -> 69 ;
70 [label="X[101] <= 0.5\ngini = 0.4339\nsamples = 30\nvalue = [30, 14]"] ;
22 -> 70 ;
71 [label="gini = 0.0\nsamples = 20\nvalue = [30, 0]"] ;
70 -> 71 ;
72 [label="gini = 0.0\nsamples = 10\nvalue = [0, 14]"] ;
70 -> 72 ;
}