digraph Tree {
node [shape=box] ;
0 [label="X[63] <= 0.5\ngini = 0.4998\nsamples = 2897\nvalue = [2314, 2234]"] ;
1 [label="X[59] <= 0.5\ngini = 0.431\nsamples = 2073\nvalue = [2221, 1018]"] ;
0 -> 1 [labeldistance=2.5, labelangle=45, headlabel="True"] ;
2 [label="X[30] <= 0.5\ngini = 0.3826\nsamples = 1876\nvalue = [2172, 754]"] ;
1 -> 2 ;
3 [label="X[26] <= 0.5\ngini = 0.3386\nsamples = 1778\nvalue = [2172, 598]"] ;
2 -> 3 ;
4 [label="X[83] <= 0.5\ngini = 0.2376\nsamples = 1615\nvalue = [2172, 347]"] ;
3 -> 4 ;
5 [label="X[53] <= 0.5\ngini = 0.2346\nsamples = 1611\nvalue = [2172, 341]"] ;
4 -> 5 ;
6 [label="X[17] <= 0.5\ngini = 0.1412\nsamples = 1317\nvalue = [1885, 156]"] ;
5 -> 6 ;
7 [label="X[52] <= 0.5\ngini = 0.1068\nsamples = 1283\nvalue = [1883, 113]"] ;
6 -> 7 ;
8 [label="X[37] <= 0.5\ngini = 0.3113\nsamples = 368\nvalue = [473, 113]"] ;
7 -> 8 ;
9 [label="X[116] <= 0.5\ngini = 0.4999\nsamples = 105\nvalue = [88, 86]"] ;
8 -> 9 ;
10 [label="X[113] <= 0.5\ngini = 0.3895\nsamples = 74\nvalue = [31, 86]"] ;
9 -> 10 ;
11 [label="gini = 0.0\nsamples = 48\nvalue = [0, 76]"] ;
10 -> 11 ;
12 [label="X[2] <= 0.5\ngini = 0.3688\nsamples = 26\nvalue = [31, 10]"] ;
10 -> 12 ;
13 [label="X[82] <= 0.5\ngini = 0.3488\nsamples = 25\nvalue = [31, 9]"] ;
12 -> 13 ;
14 [label="gini = 0.0\nsamples = 19\nvalue = [31, 0]"] ;
13 -> 14 ;
15 [label="gini = 0.0\nsamples = 6\nvalue = [0, 9]"] ;
13 -> 15 ;
16 [label="gini = 0.0\nsamples = 1\nvalue = [0, 1]"] ;
12 -> 16 ;
17 [label="gini = 0.0\nsamples = 31\nvalue = [57, 0]"] ;
9 -> 17 ;
18 [label="X[109] <= 0.5\ngini = 0.1225\nsamples = 263\nvalue = [385, 27]"] ;
8 -> 18 ;
19 [label="gini = 0.0\nsamples = 240\nvalue = [374, 0]"] ;
18 -> 19 ;
20 [label="X[12] <= 0.5\ngini = 0.4114\nsamples = 23\nvalue = [11, 27]"] ;
18 -> 20 ;
21 [label="X[103] <= 0.5\ngini = 0.4991\nsamples = 14\nvalue = [11, 12]"] ;
20 -> 21 ;
22 [label="gini = 0.0\nsamples = 8\nvalue = [0, 12]"] ;
21 -> 22 ;
23 [label="gini = 0.0\nsamples = 6\nvalue = [11, 0]"] ;
21 -> 23 ;
24 [label="gini = 0.0\nsamples = 9\nvalue = [0, 15]"] ;
20 -> 24 ;
25 [label="gini = 0.0\nsamples = 915\nvalue = [1410, 0]"] ;
7 -> 25 ;
26 [label="X[25] <= 0.5\ngini = 0.0849\nsamples = 34\nvalue = [2, 43]"] ;
6 -> 26 ;
27 [label="X[114] <= 0.5\ngini = 0.2778\nsamples = 11\nvalue = [2, 10]"] ;
26 -> 27 ;
28 [label="X[112] <= 0.5\ngini = 0.4082\nsamples = 7\nvalue = [2, 5]"] ;
27 -> 28 ;
29 [label="gini = 0.0\nsamples = 2\nvalue = [2, 0]"] ;
28 -> 29 ;
30 [label="gini = 0.0\nsamples = 5\nvalue = [0, 5]"] ;
28 -> 30 ;
31 [label="gini = 0.0\nsamples = 4\nvalue = [0, 5]"] ;
27 -> 31 ;
32 [label="gini = 0.0\nsamples = 23\nvalue = [0, 33]"] ;
26 -> 32 ;
33 [label="X[106] <= 0.5\ngini = 0.4767\nsamples = 294\nvalue = [287, 185]"] ;
5 -> 33 ;
34 [label="X[51] <= 0.5\ngini = 0.4718\nsamples = 186\nvalue = [114, 185]"] ;
33 -> 34 ;
35 [label="gini = 0.0\nsamples = 119\nvalue = [0, 185]"] ;
34 -> 35 ;
36 [label="gini = 0.0\nsamples = 67\nvalue = [114, 0]"] ;
34 -> 36 ;
37 [label="gini = 0.0\nsamples = 108\nvalue = [173, 0]"] ;
33 -> 37 ;
38 [label="gini = 0.0\nsamples = 4\nvalue = [0, 6]"] ;
4 -> 38 ;
39 [label="gini = 0.0\nsamples = 163\nvalue = [0, 251]"] ;
3 -> 39 ;
40 [label="gini = 0.0\nsamples = 98\nvalue = [0, 156]"] ;
2 -> 40 ;
41 [label="X[37] <= 0.5\ngini = 0.2641\nsamples = 197\nvalue = [49, 264]"] ;
1 -> 41 ;
42 [label="gini = 0.0\nsamples = 159\nvalue = [0, 247]"] ;
41 -> 42 ;
43 [label="X[88] <= 0.5\ngini = 0.3825\nsamples = 38\nvalue = [49, 17]"] ;
41 -> 43 ;
44 [label="gini = 0.0\nsamples = 29\nvalue = [49, 0]"] ;
43 -> 44 ;
45 [label="gini = 0.0\nsamples = 9\nvalue = [0, 17]"] ;
43 -> 45 ;
46 [label="X[95] <= 0.5\ngini = 0.132\nsamples = 824\nvalue = [93, 1216]"] ;
0 -> 46 [labeldistance=2.5, labelangle=-45, headlabel="False"] ;
47 [label="gini = 0.0\nsamples = 764\nvalue = [0, 1216]"] ;
46 -> 47 ;
48 [label="gini = 0.0\nsamples = 60\nvalue = [93, 0]"] ;
46 -> 48 ;
}